//Numpy array shape [5, 5, 1, 16]
//Min -112.000000000000
//Max 127.000000000000
//Number of zeros 1

#ifndef W84_H_
#define W84_H_

#ifndef __SYNTHESIS__
weight84_t w84[400];
#else
weight84_t w84[400] = {-41.000, 15.000, -86.000, 106.000, 79.000, -53.000, -38.000, 61.000, 100.000, 101.000, 72.000, -83.000, 14.000, 83.000, 26.000, 30.000, 88.000, 91.000, -14.000, 68.000, -59.000, 56.000, 92.000, -66.000, -26.000, -7.000, -33.000, 50.000, -63.000, -34.000, 47.000, -15.000, -103.000, 81.000, 100.000, -83.000, -10.000, -96.000, 84.000, -27.000, 37.000, -56.000, 9.000, -58.000, 60.000, -87.000, -54.000, 82.000, 34.000, -10.000, 53.000, 103.000, -52.000, 65.000, -92.000, 41.000, 22.000, 28.000, 106.000, 31.000, -99.000, 93.000, 72.000, -0.000, 80.000, 67.000, -58.000, -23.000, 32.000, 65.000, 48.000, -29.000, -1.000, -77.000, -1.000, -48.000, -89.000, -3.000, 49.000, -33.000, -83.000, -69.000, 87.000, -112.000, -15.000, 64.000, -75.000, 80.000, 41.000, -14.000, -37.000, 37.000, -31.000, 15.000, -62.000, -94.000, -77.000, 85.000, -57.000, -37.000, 46.000, -70.000, 32.000, 61.000, 90.000, -109.000, 98.000, -10.000, 10.000, -21.000, 39.000, -54.000, 46.000, 6.000, 42.000, -45.000, 93.000, 81.000, 51.000, 95.000, -91.000, 35.000, -100.000, 31.000, -45.000, 54.000, 40.000, 52.000, 71.000, 66.000, 16.000, -80.000, 94.000, 30.000, -85.000, -88.000, 87.000, 54.000, -76.000, 104.000, 82.000, -53.000, 28.000, -79.000, 80.000, 58.000, 79.000, 109.000, -51.000, -36.000, -95.000, 77.000, -47.000, -32.000, -26.000, 27.000, 95.000, 98.000, -21.000, 28.000, -69.000, -81.000, 86.000, 46.000, -83.000, 58.000, 41.000, -59.000, -16.000, 4.000, -81.000, -45.000, 13.000, -72.000, -33.000, 15.000, 32.000, 67.000, -5.000, 60.000, 65.000, -86.000, 38.000, 95.000, 45.000, -60.000, -39.000, -20.000, 56.000, 40.000, -30.000, 97.000, -56.000, -67.000, 100.000, 23.000, 8.000, 87.000, 14.000, 19.000, 66.000, 105.000, -73.000, -70.000, -35.000, 52.000, 1.000, 90.000, 85.000, -29.000, -42.000, -97.000, -31.000, -15.000, 113.000, -16.000, 2.000, 39.000, 112.000, -40.000, 5.000, 87.000, -14.000, -16.000, -66.000, -43.000, -62.000, -97.000, 71.000, -78.000, -57.000, -60.000, 23.000, -84.000, 95.000, 79.000, -100.000, 92.000, 35.000, 17.000, -49.000, 81.000, -86.000, -30.000, -75.000, 61.000, 58.000, -35.000, -65.000, 39.000, -94.000, 60.000, 67.000, -87.000, -62.000, 41.000, -83.000, -45.000, 23.000, -51.000, 51.000, 7.000, -68.000, 65.000, 73.000, 28.000, 87.000, -35.000, -93.000, -89.000, 45.000, 74.000, -26.000, -93.000, -77.000, 46.000, 69.000, 25.000, -14.000, 58.000, -34.000, -46.000, 9.000, 23.000, 104.000, -37.000, 91.000, -86.000, 43.000, 104.000, 16.000, 70.000, 24.000, -79.000, 78.000, -81.000, -46.000, -62.000, -18.000, 51.000, -107.000, -77.000, -104.000, -14.000, 17.000, -80.000, 93.000, -1.000, 64.000, -54.000, -85.000, 61.000, -49.000, 82.000, -38.000, 29.000, 105.000, -15.000, 97.000, 31.000, 48.000, -106.000, -8.000, 1.000, -38.000, 46.000, 72.000, -80.000, 55.000, 29.000, 100.000, -5.000, 3.000, -11.000, 41.000, 27.000, 107.000, 100.000, 19.000, 46.000, -27.000, -61.000, -15.000, 27.000, -90.000, -39.000, 79.000, -43.000, -76.000, 68.000, -16.000, -100.000, 71.000, 43.000, -35.000, -15.000, -80.000, -30.000, -60.000, -35.000, -86.000, -46.000, 1.000, -103.000, 33.000, 102.000, 77.000, 77.000, 77.000, -6.000, 35.000, 58.000, -91.000, -56.000, 81.000, -75.000, -91.000, 101.000, 2.000, 10.000, -23.000, 53.000, -2.000, -69.000, 4.000, 13.000, 75.000, -6.000, 90.000, 127.000, -46.000, -54.000, 109.000, -84.000, 72.000, 13.000, -18.000, 4.000, -80.000, 47.000};
#endif

#endif
